Language model created by QuickLM on Thu Nov 19 06:06:53 EST 2015
Copyright (c) 1996-2010 Carnegie Mellon University and Alexander I. Rudnicky

The model is in standard ARPA format, designed by Doug Paul while he was at MITRE.

The code that was used to produce this language model is available in Open Source.
Please visit http://www.speech.cs.cmu.edu/tools/ for more information

The (fixed) discount mass is 0.5. The backoffs are computed using the ratio method.
This model based on a corpus of 587 sentences and 381 words

\data\
ngram 1=381
ngram 2=780
ngram 3=756

\1-grams:
-0.9836 </s> -0.3010
-0.9836 <s> -0.2242
-3.7522 ADHAHANNATH -0.3005
-3.1501 ADHARA -0.3003
-2.9741 ADHARAYAK -0.2534
-2.5761 ADHARE -0.2439
-3.0532 ADHAREI -0.3001
-2.7980 ADHAREN -0.2499
-3.4512 ADHDHARA -0.2534
-3.4512 ADHINAWA -0.2509
-2.8491 AHAN -0.3000
-3.1501 AHASAKA -0.2531
-3.4512 AHIMI -0.2971
-3.7522 AITHI -0.2990
-3.1501 AKASAYE -0.2529
-3.4512 ALEN -0.2990
-2.7980 AMATHAKA -0.2988
-2.7980 AMMA -0.2531
-3.1501 ANDHURU -0.3007
-2.9741 ANJALIKA -0.2534
-3.1501 APA -0.3007
-3.7522 API -0.3010
-3.0532 ARADHANA -0.2531
-3.7522 ASSATA -0.2534
-2.9071 ATA -0.2534
-3.7522 ATHARE -0.2534
-3.7522 ATHEETHAYAKA -0.2534
-3.1501 AWASANA -0.3007
-2.9741 AYE -0.2530
-3.0532 AYEMATH -0.3003
-3.7522 AYETH -0.3009
-3.1501 BALA -0.2532
-3.0532 BALAN -0.2532
-3.7522 BAMBARA -0.3010
-3.1501 BAMBAREKU -0.3006
-2.9741 BATHUI -0.3006
-2.9071 BE -0.2529
-2.9741 BENDHA -0.2534
-3.4512 BENDHUNE -0.2534
-3.7522 BENE -0.2534
-2.8491 BERI -0.2990
-2.9741 BINDHUWAK -0.2534
-3.4512 BUDHU -0.3009
-3.4512 BUDHUHAMUDHURUWO -0.2534
-3.7522 CHANNA -0.3010
-3.7522 DHAIWAYE -0.3010
-3.4512 DHAKUNA -0.2532
-3.4512 DHAMPATA -0.3009
-3.4512 DHANNA -0.3009
-2.7108 DHANNAWADHA -0.2987
-2.9071 DHANNE -0.2498
-3.7522 DHARA -0.2534
-2.9741 DHAWASAKA -0.2982
-2.7108 DHEKA -0.2534
-3.4512 DHEKATA -0.2531
-3.1501 DHEN -0.2527
-3.7522 DHENENA -0.3010
-3.7522 DHENETH -0.2534
-3.7522 DHENETHA -0.3008
-2.7980 DHENNA -0.2514
-3.4512 DHENUWAN -0.2534
-3.0532 DHESA -0.2533
-2.9741 DHESE -0.3003
-3.4512 DHESIN -0.3009
-3.1501 DHIGU -0.3006
-3.0532 DHIHA -0.3006
-3.1501 DHILI -0.3006
-3.4512 DHILISEWI -0.2534
-3.2751 DHINE -0.2534
-2.9741 DHIURALA -0.3006
-3.4512 DHIYAKINDURIYA -0.3006
-3.7522 DHUK -0.3003
-2.5481 DHUKA -0.2979
-3.7522 DHUKATA -0.3010
-3.4512 DHUKATH -0.3006
-3.7522 DHUKIN -0.2534
-3.4512 DHUNNU -0.3003
-2.9071 DHURA -0.3001
-3.7522 DHURAS -0.2990
-2.9741 DUKA -0.3000
-3.2751 DUKATH -0.3006
-3.1501 DUKIN -0.2529
-3.4512 EDHA -0.3003
-2.9741 EDHI -0.3006
-3.7522 EHERENNA -0.3010
-3.7522 EHI -0.3010
-2.9071 EKA -0.2534
-3.7522 ELANGA -0.3010
-2.9741 ENNA -0.3006
-3.4512 ENNAM -0.2534
-2.3543 ES -0.2507
-3.7522 ETH -0.2990
-2.9741 ETHA -0.3006
-3.4512 ETHATA -0.2534
-3.4512 ETHIN -0.3009
-3.4512 EWIDHIN -0.2532
-3.4512 EWITH -0.2982
-3.4512 EWITHMA -0.3006
-3.4512 GANGA -0.3009
-3.2751 GANNA -0.2987
-3.7522 GASA -0.3003
-2.9741 GEHENA -0.2525
-3.7522 GEHUNE -0.3010
-3.2751 GIYA -0.2992
-3.2751 HADHA -0.3008
-2.9741 HADHAGANNA -0.2495
-2.6730 HADHAWATHA -0.2529
-3.4512 HADHE -0.3009
-3.4512 HAMUDHURUWO -0.2526
-3.2751 HAMUWANA -0.3007
-3.7522 HAMUWANANETH -0.2534
-3.0532 HAMUWANNATA -0.2522
-3.7522 HAMUWUNA -0.3007
-3.4512 HANDAI -0.2532
-3.1501 HANDALA -0.2534
-2.7522 HANDANA -0.2983
-3.7522 HANDANAWANAM -0.3009
-3.4512 HANDANNA -0.2534
-3.7522 HANDAPU -0.2534
-3.7522 HANDAWA -0.3008
-2.9741 HANDAWANNATA -0.3005
-2.9741 HANDHA -0.2530
-3.1501 HANDHUNA -0.3007
-3.0532 HANDUWA -0.2530
-3.0532 HANTHANATA -0.3005
-3.7522 HASAREL -0.3010
-2.9071 HATHA -0.2534
-2.9071 HATHARA -0.2534
-2.9071 HAYA -0.2534
-3.7522 HEE -0.3010
-3.7522 HEENAYAK -0.3003
-3.1501 HEENAYE -0.2516
-3.4512 HEENENWATH -0.3009
-2.9741 HEMADHAMA -0.2522
-3.7522 HENDHAWATA -0.3000
-3.4512 HENDHEWATA -0.3000
-3.4512 HENDHEWE -0.2532
-3.4512 HERA -0.3008
-3.7522 HERAGIYA -0.3008
-2.9741 HIMI -0.2992
-3.4512 HINAWENNA -0.3004
-3.7522 HINDHINNA -0.2999
-3.1501 HINSA -0.3007
-3.4512 HIRIWATTANA -0.2532
-2.2898 HITHA -0.2464
-3.7522 HITHADHDHEE -0.2988
-3.0532 HITHATA -0.3005
-3.7522 HITHE -0.2534
-3.1501 HITHENAWA -0.2531
-3.7522 HO -0.2534
-3.2751 HOREN -0.3007
-3.7522 HUNGAK -0.3005
-3.4512 HURU -0.2991
-3.2751 IDA -0.3003
-3.7522 IDAK -0.3004
-3.7522 IKI -0.3010
-2.7522 INNA -0.2518
-3.1501 INNAWA -0.3006
-3.7522 INU -0.3010
-3.7522 IWASAIDHA -0.3010
-2.9741 IWASANNA -0.3004
-3.2751 KALATA -0.2532
-3.7522 KALAYE -0.2534
-3.0532 KAM -0.3002
-3.7522 KANDHULIN -0.2534
-2.4300 KANDHULU -0.2521
-2.9741 KANDHULUI -0.3006
-3.1501 KANDULIN -0.2534
-2.9741 KANNE -0.2988
-3.1501 KARANNE -0.2513
-3.7522 KAWADHA -0.3010
-3.4512 KAWDHA -0.2988
-3.4512 KAWI -0.3009
-3.4512 KAWLU -0.3009
-3.0532 KAWLUWA -0.3006
-3.7522 KAWRUDHA -0.2534
-3.0532 KAWRUNDHA -0.3006
-3.4512 KAWRUNDHO -0.2534
-3.0532 KAWRUTH -0.3004
-3.7522 KEEWATH -0.2534
-3.7522 KETI -0.3010
-3.7522 KINNARAWI -0.2534
-2.7522 KIYA -0.2529
-3.0532 KOTHTHAMALLI -0.2534
-2.9741 KUMARI -0.2521
-3.1501 LABENDHIYE -0.2534
-3.2751 LAN -0.2988
-2.9741 LANGA -0.2984
-2.9741 LANGIN -0.2531
-3.7522 LENGATHU -0.2988
-3.4512 LIYU -0.3009
-3.7522 LOKAYA -0.3005
-3.0532 LOKAYE -0.3005
-3.4512 LOWAK -0.2534
-3.7522 LOWE -0.2534
-2.1840 MA -0.2482
-3.7522 MADALA -0.2534
-3.7522 MAGA -0.3007
-2.1087 MAGE -0.2433
-3.4512 MAHADHE -0.3009
-2.6061 MAL -0.2526
-3.1501 MALATA -0.3007
-3.7522 MALSARA -0.3010
-2.9071 MAMA -0.3005
-2.6730 MAN -0.2515
-3.7522 MANDHA -0.2534
-3.7522 MANE -0.2534
-3.7522 MARUTHE -0.2534
-2.5761 MATA -0.2514
-3.2751 MATHAKAYAN -0.2534
-3.2751 MAWA -0.3003
-2.3905 ME -0.2948
-3.4512 MEEDHUMAK -0.2990
-3.7522 MENA -0.2534
-3.2751 MERI -0.2532
-2.9071 METHARAM -0.2534
-3.7522 MISSIS -0.3010
-3.4512 MITHURI -0.2532
-3.1501 MOHOTHA -0.2976
-3.0532 MOHOTHAK -0.2987
-3.7522 MUNA -0.3010
-3.7522 MUWE -0.3010
-3.7522 NADHE -0.2534
-3.0532 NAM -0.2534
-2.9071 NAMAYA -0.2534
-3.4512 NANGI -0.2532
-3.7522 NANNADHUNANA -0.3010
-2.9071 NAWAYA -0.2534
-2.8491 NE -0.2534
-3.1501 NELUM -0.3007
-2.9741 NETHANGE -0.2529
-3.7522 NETHATH -0.2534
-2.7108 NETHE -0.2517
-2.3720 NETHI -0.2481
-2.8491 NETHU -0.2529
-3.7522 NIDHUKIN -0.3010
-3.7522 NIL -0.3000
-2.6383 NISA -0.2523
-3.4512 NISAI -0.2534
-3.4512 NIWADUWATA -0.3005
-2.9741 NOBALA -0.2529
-3.1501 NODHEKA -0.3003
-3.1501 NOGATH -0.3000
-3.0532 NUMBA -0.2972
-2.2898 OBA -0.2917
-3.0532 OBAGE -0.3003
-2.8491 OBATA -0.3004
-3.7522 OBE -0.3010
-2.4300 OYA -0.2490
-2.9741 OYATA -0.3003
-3.7522 PABALU -0.3010
-3.4512 PADHA -0.2509
-2.9071 PAHA -0.2534
-3.4512 PAMANAI -0.2999
-2.9741 PANATA -0.3001
-2.9741 PATA -0.3003
-2.9741 PAWASANNA -0.2526
-2.9741 PAWEE -0.3006
-2.9071 PAYANA -0.2529
-3.4512 PE -0.2534
-2.7980 PEM -0.3003
-3.1501 PEMWATHUN -0.2990
-3.7522 PENENA -0.3010
-3.7522 PERADHA -0.3010
-3.2751 PERADHAKA -0.3008
-3.7522 PERERA -0.2534
-3.1501 PETHU -0.2997
-3.4512 PETHUM -0.2534
-3.4512 PINI -0.3009
-3.7522 PINIDHIYA -0.2534
-2.9741 PIRI -0.2976
-3.7522 PIRILA -0.2534
-3.4512 PITA -0.3000
-3.1501 PIYA -0.3007
-2.9741 PIYAN -0.2528
-3.4512 PIYANPATH -0.2534
-3.7522 PRARTHANA -0.2534
-3.4512 PREMAYA -0.3009
-3.2751 PUDHANNA -0.2534
-3.1501 PUNCHI -0.2990
-3.2751 PURA -0.2534
-3.1501 PURONA -0.2534
-3.0532 RAHASE -0.3006
-3.7522 RATHTHARAN -0.3010
-2.9741 RATHTHARANE -0.2529
-2.8491 RE -0.3004
-3.7522 RENU -0.3010
-3.7522 REWATUNA -0.2993
-2.9741 REWATUWA -0.2988
-2.9741 RITHU -0.2534
-3.7522 SAGARE -0.2993
-3.4512 SAMANALI -0.2534
-3.4512 SAMAWELA -0.2534
-3.1501 SAMAWENAWADHO -0.2534
-3.2751 SANASA -0.2534
-2.6383 SANDHA -0.2983
-3.7522 SANDHAK -0.3008
-2.9741 SANGAWA -0.2534
-3.7522 SANHDA -0.3006
-3.7522 SARADHAM -0.2534
-3.7522 SARIN -0.2534
-3.1501 SASARE -0.2534
-2.9741 SE -0.2496
-3.7522 SEETHA -0.3010
-3.4512 SEETHALA -0.3009
-3.7522 SELI -0.2534
-2.9741 SENDHEWE -0.3006
-3.7522 SEPATA -0.2534
-3.4512 SETHAPILA -0.2534
-2.9741 SEWANELLATA -0.3006
-3.4512 SIHINA -0.3009
-3.7522 SIHINAYA -0.2534
-2.9741 SIHINAYAK -0.3003
-3.4512 SIHINAYE -0.2502
-3.4512 SIHINEN -0.2534
-3.7522 SINASENNA -0.3010
-3.4512 SINHALA -0.2534
-2.7108 SITHA -0.2490
-3.2751 SITHIN -0.3008
-3.4512 SITHUM -0.2531
-3.7522 SITHUWAM -0.3010
-3.1501 SITINNAI -0.2534
-3.7522 SITIYA -0.2534
-3.1501 SITIYATH -0.2521
-3.0532 SONDHURIYA -0.2531
-2.6730 SOWIN -0.2504
-3.7522 SOYA -0.2534
-3.4512 SUDHU -0.3009
-3.4512 SULANGA -0.3003
-3.4512 SULANGAK -0.2990
-2.9741 SULANGEDHA -0.2534
-2.9071 SUPEM -0.3004
-3.4512 SUPEMWATHI -0.2531
-3.2751 SUSUMAK -0.2502
-2.8491 SUWANDHAK -0.2522
-2.9741 TAJMAHALAK -0.2516
-3.0532 THAHANAMDHA -0.3006
-2.9071 THAMATH -0.2532
-3.7522 THANI -0.3008
-3.7522 THANIKAMA -0.3009
-3.1501 THANIWEE -0.3007
-3.4512 THANIWENNA -0.3008
-3.7522 THARAHIN -0.2534
-2.3905 THARAM -0.2513
-3.2751 THARAMATA -0.2531
-3.0532 THARU -0.3000
-3.0532 THAWA -0.3006
-3.7522 THEK -0.3010
-3.1501 THENA -0.2527
-3.2751 THERI -0.3008
-3.4512 THIYENA -0.2999
-2.9071 THUNA -0.2534
-3.7522 TRINCOMALEE -0.2534
-2.9741 UNE -0.2524
-3.7522 UNUHUMA -0.2534
-3.4512 USAI -0.2534
-3.4512 UTHURA -0.3009
-2.7980 WAGE -0.2531
-3.7522 WASA -0.3010
-3.7522 WASSANE -0.2534
-3.4512 WAWANNEMA -0.3004
-2.7980 WEDHANA -0.2504
-3.7522 WEDHANAWAN -0.2534
-2.9071 WEDI -0.3000
-3.0532 WEE -0.2531
-3.7522 WEHENA -0.2534
-3.7522 WEHI -0.3010
-3.0532 WEHUWE -0.2534
-2.3372 WELA -0.2475
-3.0532 WEN -0.3004
-3.0532 WENA -0.3006
-2.9071 WENAS -0.2529
-3.2751 WENNA -0.2527
-3.7522 WENWENNATA -0.2988
-3.4512 WESSE -0.2534
-3.4512 WETENA -0.2994
-3.4512 WETUNATA -0.2520
-3.1501 WILE -0.2509
-3.1501 WITHARAI -0.2534
-3.1501 YATA -0.2516
-3.4512 YAYATA -0.3005

\2-grams:
-3.0697 <s> ADHAHANNATH 0.0000
-2.1666 <s> ADHARE -0.1249
-2.5925 <s> ADHAREI 0.0000
-2.3707 <s> AHAN 0.0000
-3.0697 <s> AHIMI -0.1761
-2.4676 <s> AKASAYE 0.0000
-2.7686 <s> ALEN 0.0000
-2.4676 <s> AMMA 0.0000
-2.5925 <s> ANDHURU 0.0000
-2.4676 <s> ANJALIKA 0.0000
-2.4676 <s> APA 0.0000
-3.0697 <s> API 0.0000
-2.3707 <s> ARADHANA 0.0000
-2.2246 <s> ATA 0.0000
-2.5925 <s> AWASANA 0.0000
-2.4676 <s> AYEMATH 0.0000
-3.0697 <s> AYETH 0.0000
-3.0697 <s> BAMBARA 0.0000
-2.7686 <s> BUDHU 0.0000
-3.0697 <s> BUDHUHAMUDHURUWO 0.0000
-3.0697 <s> CHANNA 0.0000
-3.0697 <s> DHAIWAYE 0.0000
-2.7686 <s> DHAMPATA 0.0000
-2.1154 <s> DHANNAWADHA 0.0000
-2.2915 <s> DHAWASAKA 0.0000
-2.2246 <s> DHEKA 0.0000
-3.0697 <s> DHENENA 0.0000
-3.0697 <s> DHENUWAN 0.0000
-3.0697 <s> DHESA -0.2553
-2.7686 <s> DHESIN 0.0000
-2.7686 <s> DHIGU 0.0000
-3.0697 <s> DHILI -0.1761
-2.3707 <s> DHIURALA 0.0000
-3.0697 <s> DHIYAKINDURIYA 0.0000
-1.9557 <s> DHUKA 0.0000
-3.0697 <s> DHUKATA 0.0000
-2.7686 <s> DHUKATH 0.0000
-2.7686 <s> DHUNNU 0.0000
-2.4676 <s> DHURA -0.0580
-3.0697 <s> DHURAS 0.0000
-2.3707 <s> DUKA 0.0000
-2.7686 <s> DUKATH 0.0000
-3.0697 <s> EDHA 0.0000
-3.0697 <s> EHERENNA 0.0000
-3.0697 <s> EHI 0.0000
-2.2246 <s> EKA 0.0000
-3.0697 <s> ELANGA 0.0000
-2.7686 <s> ES -0.2648
-3.0697 <s> ETHIN 0.0000
-2.7686 <s> EWITH 0.0000
-2.7686 <s> EWITHMA 0.0000
-3.0697 <s> GANGA 0.0000
-3.0697 <s> HADHA 0.0000
-3.0697 <s> HADHAGANNA -0.2218
-2.2915 <s> HADHAWATHA -0.1761
-2.7686 <s> HADHE 0.0000
-3.0697 <s> HAMUWANANETH 0.0000
-2.3707 <s> HANDANA -0.1761
-3.0697 <s> HANDANAWANAM 0.0000
-2.4676 <s> HANDAWANNATA 0.0000
-2.4676 <s> HANDHUNA 0.0000
-2.3707 <s> HANTHANATA 0.0000
-2.2246 <s> HATHA 0.0000
-2.2246 <s> HATHARA 0.0000
-2.2246 <s> HAYA 0.0000
-3.0697 <s> HEENAYAK 0.0000
-2.7686 <s> HEENENWATH 0.0000
-2.3707 <s> HEMADHAMA 0.0000
-3.0697 <s> HENDHAWATA 0.0000
-3.0697 <s> HENDHEWATA 0.0000
-2.7686 <s> HINAWENNA 0.0000
-2.4676 <s> HINSA 0.0000
-2.0697 <s> HITHA -0.2004
-3.0697 <s> HITHADHDHEE 0.0000
-2.5925 <s> HOREN 0.0000
-3.0697 <s> IKI 0.0000
-3.0697 <s> IWASAIDHA 0.0000
-2.2915 <s> IWASANNA 0.0000
-3.0697 <s> KANDHULIN 0.0000
-2.1154 <s> KANDHULU -0.1402
-2.2915 <s> KANDHULUI 0.0000
-2.7686 <s> KANDULIN 0.0000
-3.0697 <s> KAWADHA 0.0000
-3.0697 <s> KAWDHA 0.0000
-3.0697 <s> KAWLU 0.0000
-2.5925 <s> KAWRUNDHA 0.0000
-3.0697 <s> KETI 0.0000
-2.5925 <s> KOTHTHAMALLI 0.0000
-2.7686 <s> LABENDHIYE 0.0000
-3.0697 <s> LAN -0.2218
-2.7686 <s> LANGA -0.2218
-3.0697 <s> LENGATHU 0.0000
-2.7686 <s> LIYU 0.0000
-3.0697 <s> LOKAYA 0.0000
-2.3707 <s> LOKAYE 0.0000
-1.7079 <s> MA -0.0850
-3.0697 <s> MAGA 0.0000
-1.8392 <s> MAGE -0.1761
-3.0697 <s> MAHADHE 0.0000
-2.4676 <s> MAL -0.2341
-2.7686 <s> MALATA 0.0000
-3.0697 <s> MALSARA 0.0000
-3.0697 <s> MAN -0.2825
-2.1666 <s> MATA -0.0792
-2.7686 <s> MATHAKAYAN 0.0000
-2.5925 <s> MAWA 0.0000
-2.4676 <s> ME -0.1823
-2.7686 <s> MEEDHUMAK 0.0000
-3.0697 <s> MISSIS 0.0000
-2.2246 <s> NAMAYA 0.0000
-3.0697 <s> NANNADHUNANA 0.0000
-2.2246 <s> NAWAYA 0.0000
-2.5925 <s> NELUM 0.0000
-2.2915 <s> NETHANGE 0.0000
-2.2915 <s> NETHU -0.0969
-3.0697 <s> NIDHUKIN 0.0000
-3.0697 <s> NIL 0.0000
-3.0697 <s> NIWADUWATA 0.0000
-2.2915 <s> NOBALA 0.0000
-2.4676 <s> NODHEKA 0.0000
-2.5925 <s> NUMBA 0.0000
-1.8392 <s> OBA -0.0290
-2.2915 <s> OBATA 0.0000
-3.0697 <s> OBE 0.0000
-1.9905 <s> OYA -0.1091
-2.2915 <s> OYATA 0.0000
-2.2246 <s> PAHA 0.0000
-2.2915 <s> PAWEE 0.0000
-3.0697 <s> PEM -0.2762
-2.5925 <s> PEMWATHUN 0.0000
-3.0697 <s> PENENA 0.0000
-3.0697 <s> PERADHA 0.0000
-2.5925 <s> PERADHAKA 0.0000
-2.7686 <s> PETHU 0.0000
-2.7686 <s> PINI 0.0000
-3.0697 <s> PREMAYA 0.0000
-2.7686 <s> PUNCHI 0.0000
-3.0697 <s> RATHTHARAN 0.0000
-2.3707 <s> RE 0.0000
-3.0697 <s> REWATUNA 0.0000
-2.4676 <s> RITHU 0.0000
-3.0697 <s> SAGARE 0.0000
-3.0697 <s> SAMAWELA 0.0000
-2.7686 <s> SAMAWENAWADHO 0.0000
-2.0283 <s> SANDHA -0.0322
-3.0697 <s> SANDHAK 0.0000
-3.0697 <s> SEETHA 0.0000
-3.0697 <s> SEETHALA 0.0000
-2.2915 <s> SENDHEWE 0.0000
-2.4676 <s> SEWANELLATA 0.0000
-3.0697 <s> SIHINA 0.0000
-3.0697 <s> SINASENNA 0.0000
-2.4676 <s> SITHA -0.1891
-2.5925 <s> SITHIN 0.0000
-2.4676 <s> SOWIN -0.1761
-2.7686 <s> SUDHU 0.0000
-2.7686 <s> SULANGA 0.0000
-3.0697 <s> SULANGAK 0.0000
-2.2915 <s> SUPEM 0.0000
-2.7686 <s> SUPEMWATHI 0.0000
-3.0697 <s> SUWANDHAK -0.2730
-2.2915 <s> TAJMAHALAK 0.0000
-2.3707 <s> THAHANAMDHA 0.0000
-2.7686 <s> THAMATH -0.2341
-3.0697 <s> THANI 0.0000
-3.0697 <s> THANIKAMA 0.0000
-2.7686 <s> THANIWEE 0.0000
-2.7686 <s> THANIWENNA 0.0000
-2.3707 <s> THAWA 0.0000
-2.7686 <s> THERI 0.0000
-2.2246 <s> THUNA 0.0000
-3.0697 <s> TRINCOMALEE 0.0000
-2.7686 <s> UTHURA 0.0000
-3.0697 <s> WEDHANAWAN 0.0000
-3.0697 <s> WEHI 0.0000
-2.3707 <s> WEN 0.0000
-2.5925 <s> WENA 0.0000
-3.0697 <s> WENWENNATA 0.0000
-2.7686 <s> WETENA 0.0000
-3.0697 <s> YAYATA 0.0000
-0.3010 ADHAHANNATH BE -0.0580
-0.3010 ADHARA AMMA -0.0458
-0.3010 ADHARAYAK </s> -0.3010
-1.1761 ADHARE </s> -0.3010
-0.8751 ADHARE HITHENAWA 0.0000
-1.4771 ADHARE MA -0.2891
-0.6990 ADHARE MAGE -0.2704
-1.4771 ADHARE MAHADHE 0.0000
-1.4771 ADHARE THARAM -0.1154
-0.3010 ADHAREI MAN -0.1996
-0.6532 ADHAREN </s> -0.3010
-1.2553 ADHAREN MA -0.2643
-0.6532 ADHAREN PURONA 0.0000
-0.3010 ADHDHARA </s> -0.3010
-0.6021 ADHINAWA </s> -0.3010
-0.6021 ADHINAWA HITHA -0.2858
-0.6021 AHAN INNA -0.1761
-0.6021 AHAN INNAWA 0.0000
-0.4260 AHASAKA </s> -0.3010
-0.9031 AHASAKA AWASANA 0.0000
-0.6021 AHIMI ES -0.2648
-0.6021 AHIMI WELA -0.1413
-0.3010 AITHI WELA -0.1413
-0.6021 AKASAYE </s> -0.3010
-0.9031 AKASAYE BUDHUHAMUDHURUWO 0.0000
-0.9031 AKASAYE MALATA 0.0000
-0.3010 ALEN WELA -0.1291
-0.7782 AMATHAKA KALATA 0.0000
-0.4771 AMATHAKA WELA -0.1165
-0.3522 AMMA </s> -0.3010
-1.2553 AMMA MALATA 0.0000
-0.3010 ANDHURU AHASAKA 0.0000
-0.3010 ANJALIKA </s> -0.3010
-0.4260 APA HAMUWANA 0.0000
-0.9031 APA HAMUWUNA 0.0000
-0.3010 API KAWRUDHA 0.0000
-0.5229 ARADHANA </s> -0.3010
-0.6990 ARADHANA KANDULIN 0.0000
-0.3010 ASSATA </s> -0.3010
-0.3010 ATA </s> -0.3010
-0.3010 ATHARE </s> -0.3010
-0.3010 ATHEETHAYAKA </s> -0.3010
-0.3010 AWASANA MOHOTHA 0.0000
-0.4771 AYE </s> -0.3010
-0.7782 AYE ADHAREI 0.0000
-0.3010 AYEMATH ADHAREN -0.1597
-0.3010 AYETH HANDANNA 0.0000
-0.4260 BALA </s> -0.3010
-0.9031 BALA ETHIN 0.0000
-0.3979 BALAN </s> -0.3010
-1.0000 BALAN HENDHEWATA 0.0000
-0.3010 BAMBARA NADHE 0.0000
-0.3010 BAMBAREKU SE 0.0000
-0.3010 BATHUI KANNE 0.0000
-0.3680 BE </s> -0.3010
-1.1461 BE HEMADHAMA -0.1249
-0.3010 BENDHA </s> -0.3010
-0.3010 BENDHUNE </s> -0.3010
-0.3010 BENE </s> -0.3010
-0.4260 BERI THARAM -0.0854
-0.9031 BERI THARAMATA 0.0000
-0.3010 BINDHUWAK </s> -0.3010
-0.3010 BUDHU HAMUDHURUWO 0.0000
-0.3010 BUDHUHAMUDHURUWO </s> -0.3010
-0.3010 CHANNA KINNARAWI 0.0000
-0.3010 DHAIWAYE SARADHAM 0.0000
-0.6021 DHAKUNA </s> -0.3010
-0.6021 DHAKUNA DHIYAKINDURIYA 0.0000
-0.3010 DHAMPATA HENDHEWE 0.0000
-0.3010 DHANNA NISAI 0.0000
-0.6435 DHANNAWADHA MAMA -0.1091
-0.5643 DHANNAWADHA ME -0.1823
-0.4472 DHANNE </s> -0.3010
-1.1461 DHANNE AYEMATH 0.0000
-1.1461 DHANNE MA -0.2643
-0.3010 DHARA </s> -0.3010
-0.3010 DHAWASAKA MA -0.2643
-0.3010 DHEKA </s> -0.3010
-0.6021 DHEKATA </s> -0.3010
-0.6021 DHEKATA MATHAKAYAN 0.0000
-0.4260 DHEN </s> -0.3010
-0.9031 DHEN AHAN -0.1761
-0.3010 DHENENA DHUK 0.0000
-0.3010 DHENETH </s> -0.3010
-0.3010 DHENETHA PURA 0.0000
-0.3522 DHENNA </s> -0.3010
-1.2553 DHENNA ME -0.1823
-0.3010 DHENUWAN </s> -0.3010
-0.3979 DHESA </s> -0.3010
-1.0000 DHESA WASA 0.0000
-0.3010 DHESE WEDHANA -0.0458
-0.3010 DHESIN PE 0.0000
-0.3010 DHIGU DHESA -0.0792
-0.3010 DHIHA BALAN 0.0000
-0.6021 DHILI DHILI -0.1761
-0.6021 DHILI DHILISEWI 0.0000
-0.3010 DHILISEWI </s> -0.3010
-0.3010 DHINE </s> -0.3010
-0.3010 DHIURALA PAWASANNA 0.0000
-0.3010 DHIYAKINDURIYA SE -0.0669
-0.3010 DHUK WEDHANA -0.1249
-1.2041 DHUKA DHANNA 0.0000
-0.8062 DHUKA DHANNE 0.0000
-0.7270 DHUKA NETHI -0.2430
-1.0280 DHUKA WEDI 0.0000
-0.3010 DHUKATA SEPATA 0.0000
-0.3010 DHUKATH KAM 0.0000
-0.3010 DHUKIN </s> -0.3010
-0.3010 DHUNNU WEDHANA -0.0872
-0.3680 DHURA ETHA 0.0000
-1.1461 DHURA HANDHA -0.1249
-0.3010 DHURAS WELA -0.1413
-0.7782 DUKA DHANNE -0.1091
-0.4771 DUKA WEDI -0.0580
-0.3010 DUKATH KAM 0.0000
-0.6021 DUKIN </s> -0.3010
-0.6021 DUKIN RITHU 0.0000
-0.3010 EDHA PEM -0.1249
-0.3010 EDHI ENNA 0.0000
-0.3010 EHERENNA IDAK 0.0000
-0.3010 EHI DHARA 0.0000
-0.3010 EKA </s> -0.3010
-0.3010 ELANGA WASSANE 0.0000
-0.3010 ENNA AYE 0.0000
-0.3010 ENNAM </s> -0.3010
-0.9208 ES </s> -0.3010
-1.0969 ES ADHAREN -0.1919
-1.0969 ES DHEKA 0.0000
-1.3979 ES DHEKATA 0.0000
-1.0000 ES DHIHA 0.0000
-1.0969 ES PIYA 0.0000
-0.3010 ETH WELA -0.1413
-0.3010 ETHA SULANGEDHA 0.0000
-0.3010 ETHATA </s> -0.3010
-0.3010 ETHIN ETHATA 0.0000
-0.6021 EWIDHIN </s> -0.3010
-0.6021 EWIDHIN YAYATA 0.0000
-0.3010 EWITH MA -0.2891
-0.3010 EWITHMA LANGIN 0.0000
-0.3010 GANGA ADHDHARA 0.0000
-0.7782 GANNA BE -0.0580
-0.4771 GANNA ME -0.2615
-0.3010 GASA HANDANA -0.2788
-0.4771 GEHENA </s> -0.3010
-0.7782 GEHENA DHANNAWADHA -0.1627
-0.3010 GEHUNE NETHATH 0.0000
-0.4771 GIYA DHINE 0.0000
-0.7782 GIYA OYA -0.2906
-0.3010 HADHA GANNA 0.0000
-0.7782 HADHAGANNA </s> -0.3010
-1.0792 HADHAGANNA BE -0.0580
-1.0792 HADHAGANNA MATA -0.2863
-0.7782 HADHAGANNA ME -0.2615
-0.6021 HADHAWATHA </s> -0.3010
-0.6021 HADHAWATHA GEHENA 0.0000
-0.3010 HADHE SITHUM 0.0000
-0.6021 HAMUDHURUWO </s> -0.3010
-0.6021 HAMUDHURUWO AMMA -0.0458
-0.3010 HAMUWANA THENA 0.0000
-0.3010 HAMUWANANETH </s> -0.3010
-0.5229 HAMUWANNATA </s> -0.3010
-1.0000 HAMUWANNATA SANDHA -0.2285
-1.0000 HAMUWANNATA SANHDA 0.0000
-0.3010 HAMUWUNA THENA -0.1761
-0.6021 HANDAI </s> -0.3010
-0.6021 HANDAI SIHINA 0.0000
-0.3010 HANDALA </s> -0.3010
-1.3010 HANDANA ATHEETHAYAKA 0.0000
-0.6990 HANDANA SITHA -0.2139
-0.6021 HANDANA THARAM -0.0854
-0.3010 HANDANAWANAM HANDANNA 0.0000
-0.3010 HANDANNA </s> -0.3010
-0.3010 HANDAPU </s> -0.3010
-0.3010 HANDAWA GIYA -0.2218
-0.3010 HANDAWANNATA METHARAM 0.0000
-0.4771 HANDHA </s> -0.3010
-0.7782 HANDHA KOTHTHAMALLI 0.0000
-0.3010 HANDHUNA NOGATH 0.0000
-0.5229 HANDUWA </s> -0.3010
-0.6990 HANDUWA WENA 0.0000
-0.3010 HANTHANATA PAYANA -0.1091
-0.3010 HASAREL SOYA 0.0000
-0.3010 HATHA </s> -0.3010
-0.3010 HATHARA </s> -0.3010
-0.3010 HAYA </s> -0.3010
-0.3010 HEE SARIN 0.0000
-0.3010 HEENAYAK WAGE -0.0458
-0.4260 HEENAYE </s> -0.3010
-0.9031 HEENAYE OYA -0.1963
-0.3010 HEENENWATH EWIDHIN 0.0000
-1.0792 HEMADHAMA </s> -0.3010
-0.4771 HEMADHAMA HANDANA -0.2041
-1.0792 HEMADHAMA PUNCHI -0.1761
-0.3010 HENDHAWATA MAL -0.2518
-0.3010 HENDHEWATA MAL -0.2518
-0.6021 HENDHEWE </s> -0.3010
-0.6021 HENDHEWE SEETHALA 0.0000
-0.3010 HERA GIYA -0.1249
-0.3010 HERAGIYA DHINE 0.0000
-0.3010 HIMI NETHI -0.2430
-0.3010 HINAWENNA BERI -0.2430
-0.3010 HINDHINNA MATA -0.2863
-0.3010 HINSA KARANNE 0.0000
-0.6021 HIRIWATTANA </s> -0.3010
-0.6021 HIRIWATTANA GANGA 0.0000
-0.6173 HITHA </s> -0.3010
-1.7634 HITHA ANDHURU 0.0000
-1.7634 HITHA ASSATA 0.0000
-1.7634 HITHA DHURA -0.2688
-1.7634 HITHA HADHA 0.0000
-1.1614 HITHA HADHAGANNA -0.1249
-1.4624 HITHA HIRIWATTANA 0.0000
-1.7634 HITHA KEEWATH 0.0000
-1.7634 HITHA MAGE -0.2756
-1.7634 HITHA SITHA -0.2596
-1.4624 HITHA WAWANNEMA 0.0000
-0.3010 HITHADHDHEE HITHA -0.1811
-0.3010 HITHATA THAMATH -0.1091
-0.3010 HITHE </s> -0.3010
-0.6021 HITHENAWA </s> -0.3010
-0.6021 HITHENAWA DHIGU 0.0000
-0.3010 HO </s> -0.3010
-0.3010 HOREN BALA 0.0000
-0.3010 HUNGAK WENAS -0.2688
-0.6021 HURU DHENETHA 0.0000
-0.6021 HURU NETHI -0.2825
-0.3010 IDA DHENNA 0.0000
-0.3010 IDAK NE 0.0000
-0.3010 IKI GASA 0.0000
-0.6990 INNA </s> -0.3010
-0.6990 INNA BE 0.0000
-1.3010 INNA PEMWATHUN 0.0000
-1.3010 INNA RE -0.2430
-0.3010 INNAWA NAM 0.0000
-0.3010 INU MENA 0.0000
-0.3010 IWASAIDHA MANDHA 0.0000
-0.3010 IWASANNA BERI -0.0969
-0.4771 KALATA </s> -0.3010
-0.7782 KALATA PREMAYA 0.0000
-0.3010 KALAYE </s> -0.3010
-0.3010 KAM NETHE -0.1891
-0.3010 KANDHULIN </s> -0.3010
-0.7782 KANDHULU </s> -0.3010
-0.8451 KANDHULU BINDHUWAK 0.0000
-1.6232 KANDHULU EDHA 0.0000
-1.6232 KANDHULU PIRILA 0.0000
-0.8451 KANDHULU SANGAWA 0.0000
-0.3010 KANDHULUI BATHUI 0.0000
-0.3010 KANDULIN </s> -0.3010
-0.3010 KANNE OBA -0.2452
-0.6021 KARANNE </s> -0.3010
-0.6021 KARANNE ES -0.2648
-0.3010 KAWADHA HO 0.0000
-0.3010 KAWDHA OBA -0.2858
-0.3010 KAWI PADHA 0.0000
-0.3010 KAWLU PIYANPATH 0.0000
-0.3010 KAWLUWA WEHUWE 0.0000
-0.3010 KAWRUDHA </s> -0.3010
-0.3010 KAWRUNDHA KAWLUWA 0.0000
-0.3010 KAWRUNDHO </s> -0.3010
-0.3010 KAWRUTH NE 0.0000
-0.3010 KEEWATH </s> -0.3010
-0.3010 KETI KALAYE 0.0000
-0.3010 KINNARAWI </s> -0.3010
-0.4559 KIYA </s> -0.3010
-1.3010 KIYA ETH 0.0000
-1.0000 KIYA KAWRUNDHA 0.0000
-0.3010 KOTHTHAMALLI </s> -0.3010
-0.4771 KUMARI </s> -0.3010
-0.7782 KUMARI MATA -0.2041
-0.3010 LABENDHIYE </s> -0.3010
-0.7782 LAN LAN -0.1249
-0.4771 LAN WELA -0.1413
-0.7782 LANGA INNA -0.1761
-0.4771 LANGA NETHI -0.2632
-0.4771 LANGIN </s> -0.3010
-0.7782 LANGIN THANIWEE 0.0000
-0.3010 LENGATHU HITHA -0.1811
-0.3010 LIYU KAWI 0.0000
-0.3010 LOKAYA WENAS -0.0580
-0.3010 LOKAYE WENAS -0.0580
-0.3010 LOWAK </s> -0.3010
-0.3010 LOWE </s> -0.3010
-1.2672 MA </s> -0.3010
-1.2672 MA ADHARA 0.0000
-1.8692 MA DHENETH 0.0000
-1.0911 MA DHESE 0.0000
-1.5682 MA DHUKA -0.2109
-1.5682 MA HERA 0.0000
-1.8692 MA HERAGIYA 0.0000
-1.5682 MA LANGIN 0.0000
-1.1703 MA OBAGE 0.0000
-1.1703 MA RAHASE 0.0000
-1.3921 MA SANASA 0.0000
-1.5682 MA SITHA -0.2596
-0.3010 MADALA </s> -0.3010
-0.3010 MAGA BALA -0.0969
-1.2455 MAGE </s> -0.3010
-1.9445 MAGE ADHARE -0.2863
-1.9445 MAGE DHIURALA 0.0000
-1.1663 MAGE HADHAWATHA -0.1761
-1.3424 MAGE HEENAYE 0.0000
-1.3424 MAGE HITHA -0.1711
-1.9445 MAGE HITHE 0.0000
-1.2455 MAGE KIYA -0.0792
-1.1663 MAGE PANATA 0.0000
-1.1663 MAGE RATHTHARANE 0.0000
-1.9445 MAGE UNUHUMA 0.0000
-1.3424 MAGE WELA -0.1165
-0.3010 MAHADHE SETHAPILA 0.0000
-0.6690 MAL </s> -0.3010
-1.1461 MAL PITA 0.0000
-0.9700 MAL PUDHANNA 0.0000
-1.1461 MAL SIHINAYE 0.0000
-1.4472 MAL SULANGAK 0.0000
-0.3010 MALATA BAMBAREKU 0.0000
-0.3010 MALSARA HEE 0.0000
-1.1461 MAMA DHUKIN 0.0000
-0.5441 MAMA DUKIN 0.0000
-0.8451 MAMA ENNAM 0.0000
-0.6021 MAN </s> -0.3010
-1.3802 MAN HANDAPU 0.0000
-0.6812 MAN OYA -0.2460
-0.3010 MANDHA </s> -0.3010
-0.3010 MANE </s> -0.3010
-0.3010 MARUTHE </s> -0.3010
-1.4771 MATA </s> -0.3010
-1.4771 MATA AHIMI -0.1761
-1.4771 MATA AITHI 0.0000
-0.6990 MATA HIMI 0.0000
-1.4771 MATA HURU -0.1761
-1.4771 MATA LAN -0.1249
-0.8751 MATA PEM -0.1249
-0.3010 MATHAKAYAN </s> -0.3010
-0.3010 MAWA AMATHAKA -0.2218
-0.6214 ME ES -0.1931
-1.0607 ME HITHA -0.1711
-1.0607 ME SASARE 0.0000
-1.0607 ME THARAM -0.0854
-0.3010 MEEDHUMAK WELA -0.1291
-0.3010 MENA </s> -0.3010
-0.7782 MERI </s> -0.3010
-0.4771 MERI SINHALA 0.0000
-0.3010 METHARAM </s> -0.3010
-0.3010 MISSIS PERERA 0.0000
-0.6021 MITHURI </s> -0.3010
-0.6021 MITHURI DHENUWAN 0.0000
-0.3010 MOHOTHA MAGE -0.2704
-0.3979 MOHOTHAK ME -0.2615
-1.0000 MOHOTHAK METHARAM 0.0000
-0.3010 MUNA GEHUNE 0.0000
-0.3010 MUWE HASAREL 0.0000
-0.3010 NADHE </s> -0.3010
-0.3010 NAM </s> -0.3010
-0.3010 NAMAYA </s> -0.3010
-0.6021 NANGI </s> -0.3010
-0.6021 NANGI SAMAWELA 0.0000
-0.3010 NANNADHUNANA SIHINAYA 0.0000
-0.3010 NAWAYA </s> -0.3010
-0.3010 NE </s> -0.3010
-0.3010 NELUM WILE 0.0000
-0.4771 NETHANGE </s> -0.3010
-0.7782 NETHANGE HANDAWANNATA 0.0000
-0.3010 NETHATH </s> -0.3010
-0.7404 NETHE </s> -0.3010
-1.0414 NETHE ADHARE -0.2041
-0.6435 NETHE SONDHURIYA 0.0000
-1.3802 NETHI </s> -0.3010
-0.9031 NETHI ADHARAYAK 0.0000
-0.9031 NETHI KANDHULU -0.2218
-1.0792 NETHI ME -0.2615
-0.9031 NETHI SOWIN -0.1761
-0.9031 NETHU </s> -0.3010
-0.4260 NETHU PIYAN 0.0000
-0.3010 NIDHUKIN INU 0.0000
-0.3010 NIL SANDHA -0.2840
-0.5699 NISA </s> -0.3010
-1.4150 NISA HADHA 0.0000
-1.4150 NISA HADHAGANNA -0.2218
-0.8129 NISA HANDALA 0.0000
-0.3010 NISAI </s> -0.3010
-0.3010 NIWADUWATA MAMA -0.2341
-0.4771 NOBALA </s> -0.3010
-0.7782 NOBALA SEWANELLATA 0.0000
-0.3010 NODHEKA INNA -0.2041
-0.3010 NOGATH NISA -0.1165
-1.0000 NUMBA LANGIN -0.1249
-0.3979 NUMBA MAGE -0.2756
-1.4624 OBA KAWRUNDHO 0.0000
-1.1614 OBA LANGA -0.1249
-1.1614 OBA MAGE -0.2808
-1.7634 OBA MATA -0.2863
-0.9183 OBA NETHI -0.2218
-0.9853 OBA REWATUWA 0.0000
-1.0645 OBA THARAM -0.1007
-0.3010 OBAGE KIYA -0.0414
-0.9031 OBATA PAMANAI 0.0000
-0.9031 OBATA THIYENA 0.0000
-0.6021 OBATA WITHARAI 0.0000
-0.3010 OBE SITHUWAM 0.0000
-1.6232 OYA </s> -0.3010
-1.1461 OYA ES -0.2455
-0.9243 OYA HITHATA 0.0000
-1.6232 OYA HUNGAK 0.0000
-1.6232 OYA LANGIN -0.1249
-1.6232 OYA MUWE 0.0000
-0.6690 OYA NISA -0.0621
-0.3010 OYATA AMATHAKA -0.1249
-0.3010 PABALU SELI 0.0000
-0.6021 PADHA </s> -0.3010
-0.6021 PADHA HITHA -0.2700
-0.3010 PAHA </s> -0.3010
-0.3010 PAMANAI ADHARE -0.2553
-0.3010 PANATA MAN -0.1761
-0.3010 PATA DHENNA -0.0458
-0.4771 PAWASANNA </s> -0.3010
-1.0792 PAWASANNA KAWDHA 0.0000
-1.0792 PAWASANNA SUPEM 0.0000
-0.3010 PAWEE EDHI 0.0000
-0.8451 PAYANA </s> -0.3010
-0.4472 PAYANA HANDHA 0.0000
-0.3010 PE </s> -0.3010
-0.4771 PEM BENDHA 0.0000
-1.2553 PEM LOWE 0.0000
-0.9542 PEM PETHUM 0.0000
-0.3010 PEMWATHUN WELA -0.2663
-0.3010 PENENA THEK 0.0000
-0.3010 PERADHA HANDAWA 0.0000
-0.3010 PERADHAKA SUSUMAK 0.0000
-0.3010 PERERA </s> -0.3010
-0.6021 PETHU NETHU -0.2430
-0.6021 PETHU PEM -0.2499
-0.3010 PETHUM </s> -0.3010
-0.3010 PINI WETUNATA 0.0000
-0.3010 PINIDHIYA </s> -0.3010
-0.3010 PIRI MAGE -0.2704
-0.3010 PIRILA </s> -0.3010
-0.3010 PITA MAL -0.1761
-0.3010 PIYA YATA 0.0000
-0.4771 PIYAN </s> -0.3010
-0.7782 PIYAN DHURA -0.0580
-0.3010 PIYANPATH </s> -0.3010
-0.3010 PRARTHANA </s> -0.3010
-0.3010 PREMAYA USAI 0.0000
-0.3010 PUDHANNA </s> -0.3010
-0.6021 PUNCHI ES -0.2648
-0.6021 PUNCHI SAMANALI 0.0000
-0.3010 PURA </s> -0.3010
-0.3010 PURONA </s> -0.3010
-0.3010 RAHASE HANDUWA 0.0000
-0.3010 RATHTHARAN PRARTHANA 0.0000
-0.4771 RATHTHARANE </s> -0.3010
-0.7782 RATHTHARANE ANJALIKA 0.0000
-0.4260 RE SIHINAYAK 0.0000
-0.9031 RE SIHINEN 0.0000
-0.3010 RENU WEHENA 0.0000
-0.3010 REWATUNA THARAM -0.1154
-0.3010 REWATUWA HITHA -0.1811
-0.3010 RITHU </s> -0.3010
-0.3010 SAGARE THARAM -0.1154
-0.3010 SAMANALI </s> -0.3010
-0.3010 SAMAWELA </s> -0.3010
-0.3010 SAMAWENAWADHO </s> -0.3010
-0.3010 SANASA </s> -0.3010
-0.8129 SANDHA ES -0.2648
-1.4150 SANDHA MADALA 0.0000
-1.1139 SANDHA MITHURI 0.0000
-1.4150 SANDHA PINIDHIYA 0.0000
-1.4150 SANDHA RENU 0.0000
-0.8129 SANDHA THARU 0.0000
-0.3010 SANDHAK WENNA -0.2218
-0.3010 SANGAWA </s> -0.3010
-0.3010 SANHDA THARU 0.0000
-0.3010 SARADHAM </s> -0.3010
-0.3010 SARIN </s> -0.3010
-0.3010 SASARE </s> -0.3010
-0.3802 SE </s> -0.3010
-1.0792 SE MAGE -0.2808
-0.3010 SEETHA MARUTHE 0.0000
-0.3010 SEETHALA WESSE 0.0000
-0.3010 SELI </s> -0.3010
-0.3010 SENDHEWE KUMARI 0.0000
-0.3010 SEPATA </s> -0.3010
-0.3010 SETHAPILA </s> -0.3010
-0.3010 SEWANELLATA PATA 0.0000
-0.3010 SIHINA LOWAK 0.0000
-0.3010 SIHINAYA </s> -0.3010
-0.3010 SIHINAYAK WAGE -0.0458
-0.6021 SIHINAYE </s> -0.3010
-0.6021 SIHINAYE MA -0.2769
-0.3010 SIHINEN </s> -0.3010
-0.3010 SINASENNA BENE 0.0000
-0.3010 SINHALA </s> -0.3010
-0.7404 SITHA </s> -0.3010
-1.0414 SITHA BENDHUNE 0.0000
-1.0414 SITHA HANDAI 0.0000
-1.3424 SITHA MAGE -0.2756
-1.0414 SITHA PURA 0.0000
-0.4771 SITHIN ADHINAWA 0.0000
-0.7782 SITHIN HINDHINNA 0.0000
-0.6021 SITHUM </s> -0.3010
-0.6021 SITHUM DHILI -0.1761
-0.3010 SITHUWAM ATHARE 0.0000
-0.3010 SITINNAI </s> -0.3010
-0.3010 SITIYA </s> -0.3010
-0.6021 SITIYATH </s> -0.3010
-0.6021 SITIYATH MATA -0.2389
-0.5229 SONDHURIYA </s> -0.3010
-0.6990 SONDHURIYA LABENDHIYE 0.0000
-0.7782 SOWIN </s> -0.3010
-1.0792 SOWIN OBA -0.2536
-0.6021 SOWIN PIRI 0.0000
-0.3010 SOYA </s> -0.3010
-0.3010 SUDHU NANGI 0.0000
-0.3010 SULANGA WAGE 0.0000
-0.3010 SULANGAK WELA -0.1413
-0.3010 SULANGEDHA </s> -0.3010
-0.3010 SUPEM SUWANDHAK -0.0512
-0.6021 SUPEMWATHI </s> -0.3010
-0.6021 SUPEMWATHI PETHU -0.1761
-0.4771 SUSUMAK </s> -0.3010
-0.7782 SUSUMAK MA -0.2891
-0.5051 SUWANDHAK </s> -0.3010
-1.2041 SUWANDHAK DUKA -0.2218
-1.2041 SUWANDHAK DUKATH 0.0000
-1.2041 SUWANDHAK WEE -0.2553
-0.4771 TAJMAHALAK </s> -0.3010
-0.7782 TAJMAHALAK KANDHULU -0.2341
-0.3010 THAHANAMDHA HAMUWANNATA 0.0000
-0.4472 THAMATH </s> -0.3010
-1.1461 THAMATH MUNA 0.0000
-1.1461 THAMATH THARAHIN 0.0000
-0.3010 THANI WENNA -0.2218
-0.3010 THANIKAMA HURU -0.1761
-0.3010 THANIWEE SITINNAI 0.0000
-0.3010 THANIWENNA IDA 0.0000
-0.3010 THARAHIN </s> -0.3010
-0.4586 THARAM </s> -0.3010
-1.3617 THARAM AHAN -0.1761
-1.3617 THARAM NUMBA -0.0792
-1.3617 THARAM RE -0.0969
-1.6628 THARAM THERI 0.0000
-0.4771 THARAMATA </s> -0.3010
-0.7782 THARAMATA PUNCHI -0.1761
-0.3010 THARU MAL -0.1963
-0.3010 THAWA MOHOTHAK 0.0000
-0.3010 THEK MANE 0.0000
-0.6021 THENA </s> -0.3010
-0.6021 THENA OBATA -0.1761
-0.3010 THERI MERI 0.0000
-0.3010 THIYENA ADHARE -0.2553
-0.3010 THUNA </s> -0.3010
-0.3010 TRINCOMALEE </s> -0.3010
-0.4771 UNE </s> -0.3010
-0.7782 UNE SOWIN -0.1761
-0.3010 UNUHUMA </s> -0.3010
-0.3010 USAI </s> -0.3010
-0.3010 UTHURA DHAKUNA 0.0000
-0.3522 WAGE </s> -0.3010
-1.2553 WAGE PETHU -0.1761
-0.3010 WASA SITIYA 0.0000
-0.3010 WASSANE </s> -0.3010
-0.3010 WAWANNEMA NE 0.0000
-0.4771 WEDHANA </s> -0.3010
-1.2553 WEDHANA NELUM 0.0000
-1.2553 WEDHANA NIWADUWATA 0.0000
-1.2553 WEDHANA OBA -0.2700
-0.3010 WEDHANAWAN </s> -0.3010
-0.3680 WEDI NETHE -0.1627
-1.1461 WEDI THARAMATA -0.1249
-1.0000 WEE </s> -0.3010
-0.3979 WEE DHEN 0.0000
-0.3010 WEHENA </s> -0.3010
-0.3010 WEHI PABALU 0.0000
-0.3010 WEHUWE </s> -0.3010
-0.5119 WELA </s> -0.3010
-1.4150 WELA KANDHULU -0.2341
-1.7160 WELA KAWLU 0.0000
-1.7160 WELA MA -0.2831
-1.4150 WELA SAMAWENAWADHO 0.0000
-1.1139 WELA SITIYATH 0.0000
-0.3979 WEN WEE -0.0792
-1.0000 WEN WENNA -0.2218
-0.3010 WENA KAWRUTH 0.0000
-1.1461 WENAS </s> -0.3010
-0.3680 WENAS UNE 0.0000
-0.7782 WENNA </s> -0.3010
-0.7782 WENNA IDA 0.0000
-0.7782 WENNA NAM 0.0000
-0.3010 WENWENNATA HITHA -0.2935
-0.3010 WESSE </s> -0.3010
-0.3010 WETENA KANDHULU -0.2093
-0.6021 WETUNATA </s> -0.3010
-0.6021 WETUNATA DHUKA -0.2730
-0.4260 WILE </s> -0.3010
-0.9031 WILE OBA -0.2619
-0.3010 WITHARAI </s> -0.3010
-0.6021 YATA </s> -0.3010
-0.6021 YATA OYA -0.1963
-0.3010 YAYATA PAYANA -0.2341

\3-grams:
-0.3010 <s> ADHAHANNATH BE
-0.6021 <s> ADHARE HITHENAWA
-0.6021 <s> ADHARE MAGE
-0.3010 <s> ADHAREI MAN
-0.5229 <s> AHAN INNA
-0.6990 <s> AHAN INNAWA
-0.3010 <s> AHIMI ES
-0.6021 <s> AKASAYE </s>
-0.9031 <s> AKASAYE BUDHUHAMUDHURUWO
-0.9031 <s> AKASAYE MALATA
-0.3010 <s> ALEN WELA
-0.4260 <s> AMMA </s>
-0.9031 <s> AMMA MALATA
-0.3010 <s> ANDHURU AHASAKA
-0.3010 <s> ANJALIKA </s>
-0.4260 <s> APA HAMUWANA
-0.9031 <s> APA HAMUWUNA
-0.3010 <s> API KAWRUDHA
-0.5229 <s> ARADHANA </s>
-0.6990 <s> ARADHANA KANDULIN
-0.3010 <s> ATA </s>
-0.3010 <s> AWASANA MOHOTHA
-0.3010 <s> AYEMATH ADHAREN
-0.3010 <s> AYETH HANDANNA
-0.3010 <s> BAMBARA NADHE
-0.3010 <s> BUDHU HAMUDHURUWO
-0.3010 <s> BUDHUHAMUDHURUWO </s>
-0.3010 <s> CHANNA KINNARAWI
-0.3010 <s> DHAIWAYE SARADHAM
-0.3010 <s> DHAMPATA HENDHEWE
-0.5563 <s> DHANNAWADHA MAMA
-0.6532 <s> DHANNAWADHA ME
-0.3010 <s> DHAWASAKA MA
-0.3010 <s> DHEKA </s>
-0.3010 <s> DHENENA DHUK
-0.3010 <s> DHENUWAN </s>
-0.3010 <s> DHESA WASA
-0.3010 <s> DHESIN PE
-0.3010 <s> DHIGU DHESA
-0.3010 <s> DHILI DHILI
-0.3010 <s> DHIURALA PAWASANNA
-0.3010 <s> DHIYAKINDURIYA SE
-1.4150 <s> DHUKA DHANNA
-0.7160 <s> DHUKA DHANNE
-0.8129 <s> DHUKA NETHI
-0.9379 <s> DHUKA WEDI
-0.3010 <s> DHUKATA SEPATA
-0.3010 <s> DHUKATH KAM
-0.3010 <s> DHUNNU WEDHANA
-0.3010 <s> DHURA ETHA
-0.3010 <s> DHURAS WELA
-1.0000 <s> DUKA DHANNE
-0.3979 <s> DUKA WEDI
-0.3010 <s> DUKATH KAM
-0.3010 <s> EDHA PEM
-0.3010 <s> EHERENNA IDAK
-0.3010 <s> EHI DHARA
-0.3010 <s> EKA </s>
-0.3010 <s> ELANGA WASSANE
-0.3010 <s> ES ADHAREN
-0.3010 <s> ETHIN ETHATA
-0.3010 <s> EWITH MA
-0.3010 <s> EWITHMA LANGIN
-0.3010 <s> GANGA ADHDHARA
-0.3010 <s> HADHA GANNA
-0.3010 <s> HADHAGANNA ME
-0.3010 <s> HADHAWATHA GEHENA
-0.3010 <s> HADHE SITHUM
-0.3010 <s> HAMUWANANETH </s>
-0.3010 <s> HANDANA THARAM
-0.3010 <s> HANDANAWANAM HANDANNA
-0.3010 <s> HANDAWANNATA METHARAM
-0.3010 <s> HANDHUNA NOGATH
-0.3010 <s> HANTHANATA PAYANA
-0.3010 <s> HATHA </s>
-0.3010 <s> HATHARA </s>
-0.3010 <s> HAYA </s>
-0.3010 <s> HEENAYAK WAGE
-0.3010 <s> HEENENWATH EWIDHIN
-1.0000 <s> HEMADHAMA </s>
-0.5229 <s> HEMADHAMA HANDANA
-1.0000 <s> HEMADHAMA PUNCHI
-0.3010 <s> HENDHAWATA MAL
-0.3010 <s> HENDHEWATA MAL
-0.3010 <s> HINAWENNA BERI
-0.3010 <s> HINSA KARANNE
-1.3010 <s> HITHA ASSATA
-1.3010 <s> HITHA DHURA
-1.3010 <s> HITHA HADHA
-0.8239 <s> HITHA HADHAGANNA
-1.0000 <s> HITHA HIRIWATTANA
-1.3010 <s> HITHA MAGE
-1.3010 <s> HITHA WAWANNEMA
-0.3010 <s> HITHADHDHEE HITHA
-0.3010 <s> HOREN BALA
-0.3010 <s> IKI GASA
-0.3010 <s> IWASAIDHA MANDHA
-0.3010 <s> IWASANNA BERI
-0.3010 <s> KANDHULIN </s>
-0.6532 <s> KANDHULU BINDHUWAK
-1.2553 <s> KANDHULU PIRILA
-0.6532 <s> KANDHULU SANGAWA
-0.3010 <s> KANDHULUI BATHUI
-0.3010 <s> KANDULIN </s>
-0.3010 <s> KAWADHA HO
-0.3010 <s> KAWDHA OBA
-0.3010 <s> KAWLU PIYANPATH
-0.3010 <s> KAWRUNDHA KAWLUWA
-0.3010 <s> KETI KALAYE
-0.3010 <s> KOTHTHAMALLI </s>
-0.3010 <s> LABENDHIYE </s>
-0.3010 <s> LAN LAN
-0.3010 <s> LANGA INNA
-0.3010 <s> LENGATHU HITHA
-0.3010 <s> LIYU KAWI
-0.3010 <s> LOKAYA WENAS
-0.3010 <s> LOKAYE WENAS
-1.1856 <s> MA ADHARA
-1.6628 <s> MA DHENETH
-1.0607 <s> MA DHESE
-1.6628 <s> MA HERA
-1.6628 <s> MA HERAGIYA
-0.9638 <s> MA OBAGE
-0.9638 <s> MA RAHASE
-1.3617 <s> MA SANASA
-1.6628 <s> MA SITHA
-0.3010 <s> MAGA BALA
-1.5315 <s> MAGE ADHARE
-1.0544 <s> MAGE HEENAYE
-1.5315 <s> MAGE HITHE
-1.5315 <s> MAGE KIYA
-0.7533 <s> MAGE RATHTHARANE
-1.5315 <s> MAGE UNUHUMA
-0.9294 <s> MAGE WELA
-0.3010 <s> MAHADHE SETHAPILA
-0.6021 <s> MAL PITA
-0.6021 <s> MAL SIHINAYE
-0.3010 <s> MALATA BAMBAREKU
-0.3010 <s> MALSARA HEE
-0.3010 <s> MAN HANDAPU
-1.2041 <s> MATA AITHI
-0.6021 <s> MATA HIMI
-1.2041 <s> MATA HURU
-0.9031 <s> MATA PEM
-0.3010 <s> MATHAKAYAN </s>
-0.3010 <s> MAWA AMATHAKA
-0.3010 <s> ME ES
-0.3010 <s> MEEDHUMAK WELA
-0.3010 <s> MISSIS PERERA
-0.3010 <s> NAMAYA </s>
-0.3010 <s> NANNADHUNANA SIHINAYA
-0.3010 <s> NAWAYA </s>
-0.3010 <s> NELUM WILE
-0.4771 <s> NETHANGE </s>
-0.7782 <s> NETHANGE HANDAWANNATA
-0.3010 <s> NETHU PIYAN
-0.3010 <s> NIDHUKIN INU
-0.3010 <s> NIL SANDHA
-0.3010 <s> NIWADUWATA MAMA
-0.4771 <s> NOBALA </s>
-0.7782 <s> NOBALA SEWANELLATA
-0.3010 <s> NODHEKA INNA
-0.7782 <s> NUMBA LANGIN
-0.4771 <s> NUMBA MAGE
-1.0544 <s> OBA LANGA
-0.9294 <s> OBA MAGE
-1.5315 <s> OBA MATA
-1.5315 <s> OBA NETHI
-0.9294 <s> OBA REWATUWA
-0.9294 <s> OBA THARAM
-0.7782 <s> OBATA PAMANAI
-0.7782 <s> OBATA THIYENA
-0.7782 <s> OBATA WITHARAI
-0.3010 <s> OBE SITHUWAM
-0.9031 <s> OYA ES
-1.3802 <s> OYA HUNGAK
-1.3802 <s> OYA LANGIN
-1.3802 <s> OYA MUWE
-0.6021 <s> OYA NISA
-0.3010 <s> OYATA AMATHAKA
-0.3010 <s> PAHA </s>
-0.3010 <s> PAWEE EDHI
-0.3010 <s> PEM LOWE
-0.3010 <s> PEMWATHUN WELA
-0.3010 <s> PENENA THEK
-0.3010 <s> PERADHA HANDAWA
-0.3010 <s> PERADHAKA SUSUMAK
-0.6021 <s> PETHU NETHU
-0.6021 <s> PETHU PEM
-0.3010 <s> PINI WETUNATA
-0.3010 <s> PREMAYA USAI
-0.6021 <s> PUNCHI ES
-0.6021 <s> PUNCHI SAMANALI
-0.3010 <s> RATHTHARAN PRARTHANA
-0.3979 <s> RE SIHINAYAK
-1.0000 <s> RE SIHINEN
-0.3010 <s> REWATUNA THARAM
-0.3010 <s> RITHU </s>
-0.3010 <s> SAGARE THARAM
-0.3010 <s> SAMAWELA </s>
-0.3010 <s> SAMAWENAWADHO </s>
-0.7404 <s> SANDHA ES
-1.0414 <s> SANDHA MITHURI
-1.3424 <s> SANDHA PINIDHIYA
-1.3424 <s> SANDHA RENU
-0.8653 <s> SANDHA THARU
-0.3010 <s> SANDHAK WENNA
-0.3010 <s> SEETHA MARUTHE
-0.3010 <s> SEETHALA WESSE
-0.3010 <s> SENDHEWE KUMARI
-0.3010 <s> SEWANELLATA PATA
-0.3010 <s> SIHINA LOWAK
-0.3010 <s> SINASENNA BENE
-0.6021 <s> SITHA HANDAI
-0.9031 <s> SITHA MAGE
-0.9031 <s> SITHA PURA
-0.4771 <s> SITHIN ADHINAWA
-0.7782 <s> SITHIN HINDHINNA
-0.3010 <s> SOWIN PIRI
-0.3010 <s> SUDHU NANGI
-0.3010 <s> SULANGA WAGE
-0.3010 <s> SULANGAK WELA
-0.3010 <s> SUPEM SUWANDHAK
-0.6021 <s> SUPEMWATHI </s>
-0.6021 <s> SUPEMWATHI PETHU
-0.3010 <s> SUWANDHAK WEE
-0.4771 <s> TAJMAHALAK </s>
-0.7782 <s> TAJMAHALAK KANDHULU
-0.3010 <s> THAHANAMDHA HAMUWANNATA
-0.6021 <s> THAMATH MUNA
-0.6021 <s> THAMATH THARAHIN
-0.3010 <s> THANI WENNA
-0.3010 <s> THANIKAMA HURU
-0.3010 <s> THANIWEE SITINNAI
-0.3010 <s> THANIWENNA IDA
-0.3010 <s> THAWA MOHOTHAK
-0.3010 <s> THERI MERI
-0.3010 <s> THUNA </s>
-0.3010 <s> TRINCOMALEE </s>
-0.3010 <s> UTHURA DHAKUNA
-0.3010 <s> WEDHANAWAN </s>
-0.3010 <s> WEHI PABALU
-0.3979 <s> WEN WEE
-1.0000 <s> WEN WENNA
-0.3010 <s> WENA KAWRUTH
-0.3010 <s> WENWENNATA HITHA
-0.3010 <s> WETENA KANDHULU
-0.3010 <s> YAYATA PAYANA
-0.3010 ADHAHANNATH BE </s>
-0.3010 ADHARA AMMA </s>
-0.6021 ADHARE HITHENAWA </s>
-0.6021 ADHARE HITHENAWA DHIGU
-0.3010 ADHARE MA SITHA
-0.3010 ADHARE MAGE PANATA
-0.3010 ADHARE MAHADHE SETHAPILA
-0.3010 ADHARE THARAM </s>
-0.3010 ADHAREI MAN OYA
-0.3010 ADHAREN MA DHESE
-0.3010 ADHAREN PURONA </s>
-0.3010 ADHINAWA HITHA WAWANNEMA
-0.4260 AHAN INNA </s>
-0.9031 AHAN INNA PEMWATHUN
-0.3010 AHAN INNAWA NAM
-0.3010 AHASAKA AWASANA MOHOTHA
-0.3010 AHIMI ES DHEKA
-0.3010 AHIMI WELA </s>
-0.3010 AITHI WELA </s>
-0.3010 AKASAYE BUDHUHAMUDHURUWO </s>
-0.3010 AKASAYE MALATA BAMBAREKU
-0.6021 ALEN WELA </s>
-0.6021 ALEN WELA MA
-0.4771 AMATHAKA KALATA </s>
-0.7782 AMATHAKA KALATA PREMAYA
-0.4771 AMATHAKA WELA </s>
-0.7782 AMATHAKA WELA KANDHULU
-0.3010 AMMA MALATA BAMBAREKU
-0.4260 ANDHURU AHASAKA </s>
-0.9031 ANDHURU AHASAKA AWASANA
-0.3010 APA HAMUWANA THENA
-0.3010 APA HAMUWUNA THENA
-0.3010 API KAWRUDHA </s>
-0.3010 ARADHANA KANDULIN </s>
-0.3010 AWASANA MOHOTHA MAGE
-0.3010 AYE ADHAREI MAN
-0.3979 AYEMATH ADHAREN </s>
-1.0000 AYEMATH ADHAREN MA
-0.3010 AYETH HANDANNA </s>
-0.3010 BALA ETHIN ETHATA
-0.3010 BALAN HENDHEWATA MAL
-0.3010 BAMBARA NADHE </s>
-0.4260 BAMBAREKU SE </s>
-0.9031 BAMBAREKU SE MAGE
-0.3010 BATHUI KANNE OBA
-0.3010 BE HEMADHAMA HANDANA
-0.4771 BERI THARAM </s>
-0.7782 BERI THARAM RE
-0.6021 BERI THARAMATA </s>
-0.6021 BERI THARAMATA PUNCHI
-0.6021 BUDHU HAMUDHURUWO </s>
-0.6021 BUDHU HAMUDHURUWO AMMA
-0.3010 CHANNA KINNARAWI </s>
-0.3010 DHAIWAYE SARADHAM </s>
-0.3010 DHAKUNA DHIYAKINDURIYA SE
-0.6021 DHAMPATA HENDHEWE </s>
-0.6021 DHAMPATA HENDHEWE SEETHALA
-0.3010 DHANNA NISAI </s>
-1.0000 DHANNAWADHA MAMA DHUKIN
-0.3979 DHANNAWADHA MAMA DUKIN
-0.3010 DHANNAWADHA ME ES
-0.3010 DHANNE AYEMATH ADHAREN
-0.3010 DHANNE MA DHESE
-0.4771 DHAWASAKA MA </s>
-0.7782 DHAWASAKA MA DHUKA
-0.3010 DHEKATA MATHAKAYAN </s>
-0.3010 DHEN AHAN INNA
-0.3010 DHENENA DHUK WEDHANA
-0.3010 DHENETHA PURA </s>
-0.3010 DHENNA ME ES
-0.3010 DHESA WASA SITIYA
-0.4771 DHESE WEDHANA </s>
-1.0792 DHESE WEDHANA NELUM
-1.0792 DHESE WEDHANA OBA
-0.3010 DHESIN PE </s>
-0.3010 DHIGU DHESA </s>
-0.3979 DHIHA BALAN </s>
-1.0000 DHIHA BALAN HENDHEWATA
-0.3010 DHILI DHILI DHILISEWI
-0.3010 DHILI DHILISEWI </s>
-0.4771 DHIURALA PAWASANNA </s>
-1.0792 DHIURALA PAWASANNA KAWDHA
-1.0792 DHIURALA PAWASANNA SUPEM
-0.3010 DHIYAKINDURIYA SE </s>
-0.3010 DHUK WEDHANA </s>
-0.3010 DHUKA DHANNA NISAI
-0.5229 DHUKA DHANNE </s>
-1.0000 DHUKA DHANNE AYEMATH
-1.0000 DHUKA DHANNE MA
-0.3010 DHUKA NETHI ADHARAYAK
-0.4771 DHUKA WEDI NETHE
-0.7782 DHUKA WEDI THARAMATA
-0.3010 DHUKATA SEPATA </s>
-0.3010 DHUKATH KAM NETHE
-0.6021 DHUNNU WEDHANA </s>
-0.6021 DHUNNU WEDHANA NIWADUWATA
-0.3010 DHURA ETHA SULANGEDHA
-0.3010 DHURA HANDHA </s>
-0.3010 DHURAS WELA </s>
-0.3010 DUKA DHANNE </s>
-0.3010 DUKA WEDI NETHE
-0.3010 DUKATH KAM NETHE
-0.3010 DUKIN RITHU </s>
-0.3010 EDHA PEM BENDHA
-0.3010 EDHI ENNA AYE
-0.3010 EHERENNA IDAK NE
-0.3010 EHI DHARA </s>
-0.3010 ELANGA WASSANE </s>
-0.4771 ENNA AYE </s>
-0.7782 ENNA AYE ADHAREI
-0.3010 ES ADHAREN PURONA
-0.3010 ES DHEKA </s>
-0.6021 ES DHEKATA </s>
-0.6021 ES DHEKATA MATHAKAYAN
-0.3010 ES DHIHA BALAN
-0.3010 ES PIYA YATA
-0.3010 ETH WELA </s>
-0.3010 ETHA SULANGEDHA </s>
-0.3010 ETHIN ETHATA </s>
-0.3010 EWIDHIN YAYATA PAYANA
-0.3010 EWITH MA LANGIN
-0.6021 EWITHMA LANGIN </s>
-0.6021 EWITHMA LANGIN THANIWEE
-0.3010 GANGA ADHDHARA </s>
-0.3010 GANNA BE </s>
-0.3010 GANNA ME HITHA
-0.3010 GASA HANDANA ATHEETHAYAKA
-0.3010 GEHENA DHANNAWADHA ME
-0.3010 GEHUNE NETHATH </s>
-0.3010 GIYA DHINE </s>
-0.3010 GIYA OYA </s>
-0.7782 HADHA GANNA BE
-0.4771 HADHA GANNA ME
-0.3010 HADHAGANNA BE </s>
-0.3010 HADHAGANNA MATA </s>
-0.3010 HADHAGANNA ME HITHA
-0.4771 HADHAWATHA GEHENA </s>
-0.7782 HADHAWATHA GEHENA DHANNAWADHA
-0.6021 HADHE SITHUM </s>
-0.6021 HADHE SITHUM DHILI
-0.3010 HAMUDHURUWO AMMA </s>
-0.7782 HAMUWANA THENA </s>
-0.4771 HAMUWANA THENA OBATA
-0.3010 HAMUWANNATA SANDHA THARU
-0.3010 HAMUWANNATA SANHDA THARU
-0.3010 HAMUWUNA THENA </s>
-0.3010 HANDAI SIHINA LOWAK
-0.3010 HANDANA ATHEETHAYAKA </s>
-0.3010 HANDANA SITHA </s>
-0.5229 HANDANA THARAM </s>
-0.6990 HANDANA THARAM AHAN
-0.3010 HANDANAWANAM HANDANNA </s>
-0.3010 HANDAWA GIYA OYA
-0.3010 HANDAWANNATA METHARAM </s>
-0.3010 HANDHA KOTHTHAMALLI </s>
-0.3010 HANDHUNA NOGATH NISA
-0.3010 HANDUWA WENA KAWRUTH
-0.3010 HANTHANATA PAYANA HANDHA
-0.3010 HASAREL SOYA </s>
-0.3010 HEE SARIN </s>
-0.3010 HEENAYAK WAGE </s>
-0.3010 HEENAYE OYA NISA
-0.6021 HEENENWATH EWIDHIN </s>
-0.6021 HEENENWATH EWIDHIN YAYATA
-0.3010 HEMADHAMA HANDANA SITHA
-0.3010 HEMADHAMA PUNCHI SAMANALI
-0.3010 HENDHAWATA MAL PUDHANNA
-0.3010 HENDHEWATA MAL PUDHANNA
-0.3010 HENDHEWE SEETHALA WESSE
-0.3010 HERA GIYA DHINE
-0.3010 HERAGIYA DHINE </s>
-0.3010 HIMI NETHI KANDHULU
-0.3010 HINAWENNA BERI THARAMATA
-0.3010 HINDHINNA MATA LAN
-0.6021 HINSA KARANNE </s>
-0.6021 HINSA KARANNE ES
-0.3010 HIRIWATTANA GANGA ADHDHARA
-0.3010 HITHA ANDHURU AHASAKA
-0.3010 HITHA ASSATA </s>
-0.3010 HITHA DHURA HANDHA
-0.3010 HITHA HADHA GANNA
-0.6021 HITHA HADHAGANNA </s>
-0.9031 HITHA HADHAGANNA BE
-0.9031 HITHA HADHAGANNA MATA
-0.6021 HITHA HIRIWATTANA </s>
-0.6021 HITHA HIRIWATTANA GANGA
-0.3010 HITHA KEEWATH </s>
-0.3010 HITHA MAGE </s>
-0.3010 HITHA SITHA PURA
-0.3010 HITHA WAWANNEMA NE
-0.3010 HITHADHDHEE HITHA </s>
-0.3010 HITHATA THAMATH </s>
-0.3010 HITHENAWA DHIGU DHESA
-0.4771 HOREN BALA </s>
-0.7782 HOREN BALA ETHIN
-0.3010 HUNGAK WENAS </s>
-0.3010 HURU DHENETHA PURA
-0.3010 HURU NETHI </s>
-0.4771 IDA DHENNA </s>
-0.7782 IDA DHENNA ME
-0.3010 IDAK NE </s>
-0.3010 IKI GASA HANDANA
-0.4260 INNA BE </s>
-0.9031 INNA BE HEMADHAMA
-0.3010 INNA PEMWATHUN WELA
-0.3010 INNA RE SIHINEN
-0.3010 INNAWA NAM </s>
-0.3010 INU MENA </s>
-0.3010 IWASAIDHA MANDHA </s>
-0.3010 IWASANNA BERI THARAM
-0.3010 KALATA PREMAYA USAI
-0.3010 KAM NETHE SONDHURIYA
-0.3010 KANDHULU BINDHUWAK </s>
-0.3010 KANDHULU EDHA PEM
-0.3010 KANDHULU PIRILA </s>
-0.3010 KANDHULU SANGAWA </s>
-0.3010 KANDHULUI BATHUI KANNE
-0.3010 KANNE OBA NETHI
-0.3010 KARANNE ES ADHAREN
-0.3010 KAWADHA HO </s>
-0.3010 KAWDHA OBA KAWRUNDHO
-0.6021 KAWI PADHA </s>
-0.6021 KAWI PADHA HITHA
-0.3010 KAWLU PIYANPATH </s>
-0.3010 KAWLUWA WEHUWE </s>
-0.3010 KAWRUNDHA KAWLUWA WEHUWE
-0.3010 KAWRUTH NE </s>
-0.3010 KETI KALAYE </s>
-0.3010 KIYA ETH WELA
-0.3010 KIYA KAWRUNDHA KAWLUWA
-0.3010 KUMARI MATA HIMI
-0.3010 LAN LAN WELA
-0.3010 LAN WELA </s>
-0.6021 LANGA INNA </s>
-0.6021 LANGA INNA RE
-0.3010 LANGA NETHI ME
-0.3010 LANGIN THANIWEE SITINNAI
-0.3010 LENGATHU HITHA </s>
-0.3010 LIYU KAWI PADHA
-0.3010 LOKAYA WENAS UNE
-0.3010 LOKAYE WENAS UNE
-0.3010 MA ADHARA AMMA
-0.3010 MA DHENETH </s>
-0.3010 MA DHESE WEDHANA
-0.3010 MA DHUKA NETHI
-0.3010 MA HERA GIYA
-0.3010 MA HERAGIYA DHINE
-0.6021 MA LANGIN </s>
-0.6021 MA LANGIN THANIWEE
-0.3010 MA OBAGE KIYA
-0.3010 MA RAHASE HANDUWA
-0.3010 MA SANASA </s>
-0.3010 MA SITHA BENDHUNE
-0.3010 MAGA BALA </s>
-0.3010 MAGE ADHARE THARAM
-0.3010 MAGE DHIURALA PAWASANNA
-0.3010 MAGE HADHAWATHA </s>
-0.4260 MAGE HEENAYE </s>
-0.9031 MAGE HEENAYE OYA
-0.4260 MAGE HITHA </s>
-0.9031 MAGE HITHA SITHA
-0.3010 MAGE HITHE </s>
-0.3979 MAGE KIYA </s>
-1.0000 MAGE KIYA ETH
-0.3010 MAGE PANATA MAN
-0.4771 MAGE RATHTHARANE </s>
-0.7782 MAGE RATHTHARANE ANJALIKA
-0.3010 MAGE UNUHUMA </s>
-0.6021 MAGE WELA </s>
-0.6021 MAGE WELA SAMAWENAWADHO
-0.3010 MAHADHE SETHAPILA </s>
-0.3010 MAL PITA MAL
-0.3010 MAL PUDHANNA </s>
-0.6021 MAL SIHINAYE </s>
-0.6021 MAL SIHINAYE MA
-0.3010 MAL SULANGAK WELA
-0.3010 MALATA BAMBAREKU SE
-0.3010 MALSARA HEE SARIN
-0.3010 MAMA DHUKIN </s>
-0.6021 MAMA DUKIN </s>
-0.6021 MAMA DUKIN RITHU
-0.3010 MAMA ENNAM </s>
-0.3010 MAN HANDAPU </s>
-0.3010 MAN OYA HITHATA
-0.3010 MATA AHIMI WELA
-0.3010 MATA AITHI WELA
-0.3010 MATA HIMI NETHI
-0.3010 MATA HURU NETHI
-0.3010 MATA LAN WELA
-0.3010 MATA PEM BENDHA
-0.3010 MAWA AMATHAKA KALATA
-0.5643 ME ES </s>
-0.6435 ME ES DHIHA
-0.4260 ME HITHA </s>
-0.9031 ME HITHA ANDHURU
-0.3010 ME SASARE </s>
-0.6021 ME THARAM </s>
-0.6021 ME THARAM NUMBA
-0.6021 MEEDHUMAK WELA </s>
-0.6021 MEEDHUMAK WELA KAWLU
-0.3010 MERI SINHALA </s>
-0.3010 MISSIS PERERA </s>
-0.3010 MITHURI DHENUWAN </s>
-0.4260 MOHOTHA MAGE </s>
-0.9031 MOHOTHA MAGE DHIURALA
-0.3010 MOHOTHAK ME THARAM
-0.3010 MOHOTHAK METHARAM </s>
-0.3010 MUNA GEHUNE NETHATH
-0.3010 MUWE HASAREL SOYA
-0.3010 NANGI SAMAWELA </s>
-0.3010 NANNADHUNANA SIHINAYA </s>
-0.4260 NELUM WILE </s>
-0.9031 NELUM WILE OBA
-0.3010 NETHANGE HANDAWANNATA METHARAM
-0.3010 NETHE ADHARE MAGE
-0.5229 NETHE SONDHURIYA </s>
-0.6990 NETHE SONDHURIYA LABENDHIYE
-0.3010 NETHI ADHARAYAK </s>
-0.3010 NETHI KANDHULU </s>
-0.3010 NETHI ME SASARE
-0.4771 NETHI SOWIN </s>
-0.7782 NETHI SOWIN OBA
-0.4771 NETHU PIYAN </s>
-0.7782 NETHU PIYAN DHURA
-0.3010 NIDHUKIN INU MENA
-0.3010 NIL SANDHA MADALA
-0.3010 NISA HADHA GANNA
-0.3010 NISA HADHAGANNA ME
-0.3010 NISA HANDALA </s>
-0.3010 NIWADUWATA MAMA ENNAM
-0.3010 NOBALA SEWANELLATA PATA
-0.3010 NODHEKA INNA BE
-0.6021 NOGATH NISA </s>
-0.9031 NOGATH NISA HADHA
-0.9031 NOGATH NISA HADHAGANNA
-0.3010 NUMBA LANGIN </s>
-0.3010 NUMBA MAGE KIYA
-0.3010 OBA KAWRUNDHO </s>
-0.3010 OBA LANGA NETHI
-0.3010 OBA MAGE HITHA
-0.3010 OBA MATA AHIMI
-1.1461 OBA NETHI </s>
-0.3680 OBA NETHI SOWIN
-0.3010 OBA REWATUWA HITHA
-0.3979 OBA THARAM </s>
-1.0000 OBA THARAM THERI
-0.5229 OBAGE KIYA </s>
-0.6990 OBAGE KIYA KAWRUNDHA
-0.3010 OBATA PAMANAI ADHARE
-0.3010 OBATA THIYENA ADHARE
-0.3010 OBATA WITHARAI </s>
-0.3010 OBE SITHUWAM ATHARE
-0.7782 OYA ES DHEKA
-0.4771 OYA ES DHEKATA
-0.3010 OYA HITHATA THAMATH
-0.3010 OYA HUNGAK WENAS
-0.3010 OYA LANGIN </s>
-0.3010 OYA MUWE HASAREL
-0.5563 OYA NISA </s>
-0.6532 OYA NISA HANDALA
-0.3010 OYATA AMATHAKA WELA
-0.3010 PABALU SELI </s>
-0.3010 PADHA HITHA HADHAGANNA
-0.6021 PAMANAI ADHARE </s>
-0.6021 PAMANAI ADHARE MA
-0.3010 PANATA MAN </s>
-0.3010 PATA DHENNA </s>
-0.3010 PAWASANNA KAWDHA OBA
-0.3010 PAWASANNA SUPEM SUWANDHAK
-0.3010 PAWEE EDHI ENNA
-0.5229 PAYANA HANDHA </s>
-0.6990 PAYANA HANDHA KOTHTHAMALLI
-0.3010 PEM BENDHA </s>
-0.3010 PEM LOWE </s>
-0.3010 PEM PETHUM </s>
-0.3010 PEMWATHUN WELA SITIYATH
-0.3010 PENENA THEK MANE
-0.3010 PERADHA HANDAWA GIYA
-0.4771 PERADHAKA SUSUMAK </s>
-0.7782 PERADHAKA SUSUMAK MA
-0.3010 PETHU NETHU </s>
-0.3010 PETHU PEM PETHUM
-0.6021 PINI WETUNATA </s>
-0.6021 PINI WETUNATA DHUKA
-0.3010 PIRI MAGE HADHAWATHA
-0.6021 PITA MAL </s>
-0.6021 PITA MAL SULANGAK
-0.6021 PIYA YATA </s>
-0.6021 PIYA YATA OYA
-0.3010 PIYAN DHURA ETHA
-0.3010 PREMAYA USAI </s>
-0.3010 PUNCHI ES DHEKA
-0.3010 PUNCHI SAMANALI </s>
-0.5229 RAHASE HANDUWA </s>
-0.6990 RAHASE HANDUWA WENA
-0.3010 RATHTHARAN PRARTHANA </s>
-0.3010 RATHTHARANE ANJALIKA </s>
-0.3010 RE SIHINAYAK WAGE
-0.3010 RE SIHINEN </s>
-0.3010 RENU WEHENA </s>
-0.3010 REWATUNA THARAM </s>
-0.3010 REWATUWA HITHA </s>
-0.3010 SAGARE THARAM </s>
-0.3010 SANDHA ES PIYA
-0.3010 SANDHA MADALA </s>
-0.6021 SANDHA MITHURI </s>
-0.6021 SANDHA MITHURI DHENUWAN
-0.3010 SANDHA PINIDHIYA </s>
-0.3010 SANDHA RENU WEHENA
-0.3010 SANDHA THARU MAL
-0.3010 SANDHAK WENNA </s>
-0.3010 SANHDA THARU MAL
-0.3010 SE MAGE HEENAYE
-0.3010 SEETHA MARUTHE </s>
-0.3010 SEETHALA WESSE </s>
-0.4771 SENDHEWE KUMARI </s>
-0.7782 SENDHEWE KUMARI MATA
-0.3010 SEWANELLATA PATA DHENNA
-0.3010 SIHINA LOWAK </s>
-0.3010 SIHINAYAK WAGE </s>
-0.3010 SIHINAYE MA ADHARA
-0.3010 SINASENNA BENE </s>
-0.3010 SITHA BENDHUNE </s>
-0.6021 SITHA HANDAI </s>
-0.6021 SITHA HANDAI SIHINA
-0.3010 SITHA MAGE </s>
-0.3010 SITHA PURA </s>
-0.6021 SITHIN ADHINAWA </s>
-0.6021 SITHIN ADHINAWA HITHA
-0.3010 SITHIN HINDHINNA MATA
-0.3010 SITHUM DHILI DHILI
-0.3010 SITHUWAM ATHARE </s>
-0.3010 SITIYATH MATA PEM
-0.3010 SONDHURIYA LABENDHIYE </s>
-0.3010 SOWIN OBA REWATUWA
-0.3010 SOWIN PIRI MAGE
-0.6021 SUDHU NANGI </s>
-0.6021 SUDHU NANGI SAMAWELA
-0.6021 SULANGA WAGE </s>
-0.6021 SULANGA WAGE PETHU
-0.3010 SULANGAK WELA </s>
-0.4472 SUPEM SUWANDHAK </s>
-1.1461 SUPEM SUWANDHAK DUKA
-1.1461 SUPEM SUWANDHAK DUKATH
-0.3010 SUPEMWATHI PETHU PEM
-0.3010 SUSUMAK MA HERA
-0.3010 SUWANDHAK DUKA DHANNE
-0.3010 SUWANDHAK DUKATH KAM
-0.3010 SUWANDHAK WEE </s>
-0.3010 TAJMAHALAK KANDHULU SANGAWA
-0.5229 THAHANAMDHA HAMUWANNATA </s>
-1.0000 THAHANAMDHA HAMUWANNATA SANDHA
-1.0000 THAHANAMDHA HAMUWANNATA SANHDA
-0.3010 THAMATH MUNA GEHUNE
-0.3010 THAMATH THARAHIN </s>
-0.3010 THANI WENNA IDA
-0.3010 THANIKAMA HURU DHENETHA
-0.3010 THANIWEE SITINNAI </s>
-0.3010 THANIWENNA IDA DHENNA
-0.3010 THARAM AHAN INNAWA
-0.3010 THARAM NUMBA MAGE
-0.3010 THARAM RE SIHINAYAK
-0.3010 THARAM THERI MERI
-0.3010 THARAMATA PUNCHI ES
-0.3010 THARU MAL </s>
-0.3979 THAWA MOHOTHAK ME
-1.0000 THAWA MOHOTHAK METHARAM
-0.3010 THEK MANE </s>
-0.3010 THENA OBATA WITHARAI
-0.7782 THERI MERI </s>
-0.4771 THERI MERI SINHALA
-0.6021 THIYENA ADHARE </s>
-0.6021 THIYENA ADHARE MAHADHE
-0.3010 UNE SOWIN PIRI
-0.6021 UTHURA DHAKUNA </s>
-0.6021 UTHURA DHAKUNA DHIYAKINDURIYA
-0.3010 WAGE PETHU NETHU
-0.3010 WASA SITIYA </s>
-0.3010 WAWANNEMA NE </s>
-0.3010 WEDHANA NELUM WILE
-0.3010 WEDHANA NIWADUWATA MAMA
-0.3010 WEDHANA OBA LANGA
-0.4771 WEDI NETHE </s>
-0.7782 WEDI NETHE ADHARE
-0.3010 WEDI THARAMATA </s>
-0.4260 WEE DHEN </s>
-0.9031 WEE DHEN AHAN
-0.3010 WEHI PABALU SELI
-0.3010 WELA KANDHULU BINDHUWAK
-0.3010 WELA KAWLU PIYANPATH
-0.3010 WELA MA SANASA
-0.3010 WELA SAMAWENAWADHO </s>
-0.6021 WELA SITIYATH </s>
-0.6021 WELA SITIYATH MATA
-0.3010 WEN WEE DHEN
-0.3010 WEN WENNA NAM
-0.3010 WENA KAWRUTH NE
-0.4771 WENAS UNE </s>
-0.7782 WENAS UNE SOWIN
-0.3010 WENNA IDA DHENNA
-0.3010 WENNA NAM </s>
-0.3010 WENWENNATA HITHA KEEWATH
-0.6021 WETENA KANDHULU </s>
-0.6021 WETENA KANDHULU EDHA
-0.3010 WETUNATA DHUKA DHANNA
-0.3010 WILE OBA THARAM
-0.3010 YATA OYA NISA
-0.3010 YAYATA PAYANA </s>

\end\